{
    "layers": [
        {
            "inputs": [
                0.8212806756328165,
                0.6369562723162522,
                0,
                0.8647898148555213,
                0.816725483541932
            ],
            "outputs": [
                1,
                1,
                0,
                0,
                1,
                1
            ],
            "biases": [
                -0.4144752615794055,
                -0.07297211461880662,
                -0.46006082156482564,
                0.6887607869299232,
                -0.38257354499491675,
                -0.22935865508497807
            ],
            "weights": [
                [
                    0.34971248215997747,
                    -0.06355124353315975,
                    -0.15009836829791529,
                    -0.573652858784937,
                    -0.412163693722318,
                    -0.11213187263185348
                ],
                [
                    -0.44307241489241034,
                    0.08337321566886609,
                    -0.36509340084737996,
                    0.5794119104249899,
                    0.45590713780585157,
                    -0.31881032163842216
                ],
                [
                    -0.6391669003689935,
                    0.3703982566748438,
                    0.3441524804066886,
                    0.023639977896725946,
                    -0.6254742994226775,
                    -0.0908887270823873
                ],
                [
                    0.30828693542409735,
                    0.73704691863304,
                    0.5958122859515902,
                    0.2582511869047738,
                    0.27348885519887534,
                    -0.08594586700346792
                ],
                [
                    -0.4051879249063116,
                    0.7708540483434414,
                    -0.7754018655258653,
                    0.6593478264369813,
                    -0.5483488192145299,
                    0.6704923101394468
                ]
            ]
        },
        {
            "inputs": [
                1,
                1,
                0,
                0,
                1,
                1
            ],
            "outputs": [
                1,
                0,
                1,
                0
            ],
            "biases": [
                -0.2684525185023431,
                -0.045677124619718776,
                0.5389463895270105,
                0.27465533091625277
            ],
            "weights": [
                [
                    -0.114270588497302,
                    -0.45017183037481723,
                    0.21026218546992345,
                    -0.5762624601469148
                ],
                [
                    0.7275333311683523,
                    0.628977543979929,
                    0.21028915450849467,
                    0.34106965549704193
                ],
                [
                    -0.6228541480280896,
                    0.4937933237381787,
                    -0.5018125306009377,
                    -0.26239153298935813
                ],
                [
                    0.37184222634396524,
                    -0.1451042386482692,
                    -0.2543736158300492,
                    0.21952273777171363
                ],
                [
                    0.3309150204511923,
                    -0.7447059281045064,
                    0.7979374499690381,
                    0.2535081591376688
                ],
                [
                    0.35133985029289794,
                    0.295887118478777,
                    0.43280623347336,
                    0.16825862983415732
                ]
            ]
        }
    ]
}