{
    "layers": [
        {
            "inputs": [
                0.6493921298969688,
                0.35216112974886726,
                0,
                0,
                0.07781566396724526
            ],
            "outputs": [
                1,
                1,
                1,
                0,
                1,
                1
            ],
            "biases": [
                -0.4140216652425642,
                -0.08793711210475029,
                -0.4784927997480236,
                0.7158546625682458,
                -0.37791684222451166,
                -0.23513595312681693
            ],
            "weights": [
                [
                    0.34762465715047747,
                    -0.07213985159212676,
                    -0.15159283124583883,
                    -0.578374195781013,
                    -0.43376884664235477,
                    -0.1155660231441637
                ],
                [
                    -0.4637219723681142,
                    0.10783604574522135,
                    -0.3919653097629163,
                    0.586907835066221,
                    0.45709742718786245,
                    -0.333044824430331
                ],
                [
                    -0.6671842800918226,
                    0.36566245555411286,
                    0.36279016627034383,
                    0.019335231748121802,
                    -0.640558023341995,
                    -0.10566157964693404
                ],
                [
                    0.2993899552539492,
                    0.7582148313303777,
                    0.6131791706220483,
                    0.27472717108849004,
                    0.28412828029050474,
                    -0.105537042587829
                ],
                [
                    -0.41310637155813995,
                    0.8015884328764779,
                    -0.8111018237338642,
                    0.6900535189789065,
                    -0.5559088238305248,
                    0.6826869101142369
                ]
            ]
        },
        {
            "inputs": [
                1,
                1,
                1,
                0,
                1,
                1
            ],
            "outputs": [
                1,
                1,
                1,
                0
            ],
            "biases": [
                -0.2968169138306973,
                -0.05239730341414745,
                0.5647288042286932,
                0.28093214788444465
            ],
            "weights": [
                [
                    -0.1335365183780064,
                    -0.4520372199727551,
                    0.20792727339654477,
                    -0.5885555444003057
                ],
                [
                    0.7502199820134159,
                    0.6309557110886865,
                    0.2217649691022121,
                    0.35320025154257423
                ],
                [
                    -0.6361835787476074,
                    0.5130632260037881,
                    -0.5138284770125601,
                    -0.2966921633316185
                ],
                [
                    0.3844880048321507,
                    -0.16308270901706118,
                    -0.25548773297250904,
                    0.21730599915334634
                ],
                [
                    0.3528524508451025,
                    -0.7678563890151816,
                    0.8057107183990327,
                    0.26694238663963715
                ],
                [
                    0.37671898893498806,
                    0.2975598182252753,
                    0.43098685867297437,
                    0.1756038789774285
                ]
            ]
        }
    ]
}